0.491991	1.17581	1.10978	-1.16316	1.29859	-0.181342	0.639406	0.339364	-0.304389	
-0.390784	-0.850012	-0.443058	-0.0821458	-1.22903	-0.670238	-2.1018	1.11711	-0.0420831	
-1.57516	2.40943	-0.29991	1.14348	-2.11341	-1.21385	0.923627	2.42252	0.572703	
-1.9598	1.05906	-0.844275	-0.849881	1.4225	1.37065	-0.499797	1.51061	-0.0385027	
-0.855317	-0.429356	1.78068	-2.2975	-0.685837	-1.23697	-0.514411	-0.76972	0.58846	
-0.794982	0.45884	-1.43559	-0.684244	0.373576	0.789292	1.63683	1.01951	-1.15483	
0.676896	-0.684706	-1.08855	0.447789	1.46407	-0.0377864	1.35217	-0.428703	-1.92187	
-0.613705	0.361684	0.418418	-0.0277369	-1.83357	-0.61548	0.353801	2.33535	0.200691	
0.93674	0.98754	-0.100051	-1.41276	1.54734	1.52967	1.77262	0.827192	-0.484477	
-0.102638	-0.0634784	-0.5536	1.3577	-1.54414	1.17212	-0.42986	-0.411043	0.222002	
-0.504799	-1.00463	2.44666	-1.11788	-0.613162	-0.77495	-0.371619	-0.905315	2.11719	
1.19317	0.76542	-1.27534	-0.0217659	0.670136	0.408199	0.866486	-2.38983	-1.70846	
-1.08743	-0.669857	-1.07082	
2.19768	0.226067	-2.84837	
-0.860174	-0.819884	-0.681285	
-1.37554	1.90462	2.64926	
-0.176108	0.897327	-1.33458	
-1.45041	1.13164	-0.40678	
1.46532	-1.79004	-0.0453067	
1.29091	-0.643799	0.142169	
1.45598	-0.547358	-0.503088	
0.200977	
-1.22074	
-0.412197	
