-0.102421	-0.129772	0.180406	0.107278	-0.298987	1.26277	-0.535878	-0.348801	-0.215567	
0.0590892	-0.290949	-0.303572	0.0152578	-0.188561	-0.19305	0.44555	0.186435	0.448144	
0.257773	1.24625	0.117984	-0.505245	-0.0647366	0.198892	-2.26265	0.333717	-0.814507	
0.0194384	-0.0719486	1.9058	-0.206377	-0.0179983	-0.254123	-0.359325	-0.919356	0.0821993	
-0.194501	-0.613696	0.123063	-0.372573	-1.18234	-0.288248	-0.498762	-1.5155	0.00174184	
1.58717	-0.150135	-1.27244	-0.386044	-0.169662	-0.11771	0.273554	0.0913195	0.641517	
0.134781	-1.61036	0.415168	-0.198393	-0.141501	0.484401	-0.212691	0.242428	-0.93562	
-0.0575918	0.525873	0.147323	1.16272	0.882523	-0.0766677	-0.0872393	-0.587318	-0.0032392	
0.0706686	0.153809	-0.0733508	1.58446	0.50084	0.398098	0.353941	-0.307559	-0.142232	
1.09201	-0.143045	-0.0296935	-1.42357	-0.460957	-0.0716494	1.14858	0.340585	-1.79644	
1.03134	0.449151	1.02667	-0.165825	-0.18348	0.370012	0.0136452	-0.0123988	-0.675949	
0.247081	-0.0149798	0.521456	0.325535	-0.337465	-0.314803	0.00644756	-0.171924	-0.293009	
-0.310541	0.336041	1.77605	
0.822703	-0.277245	-1.17181	
0.130726	0.100081	0.243531	
-0.219785	0.00655525	0.146253	
-0.462779	0.198896	-0.596546	
0.388743	-0.0595155	-0.122346	
-1.5511	-0.707276	-0.377168	
-0.171839	0.784466	-0.775448	
0.198178	1.01416	-0.380689	
-1.53641	
0.377288	
0.241105	
