-0.623257	-0.519233	1.65702	-0.463888	-0.441398	-0.696451	-1.13229	0.987073	-0.792915	
0.210382	-1.07105	1.15921	1.49041	0.625464	-1.44024	0.555931	0.453531	-0.847554	
0.0521838	0.306906	1.73079	2.05096	-0.887765	-0.619085	-1.21433	2.01299	1.1739	
-1.06044	-0.445572	0.604948	-0.705244	2.93434	0.374968	1.9518	-0.563812	0.628217	
0.134579	0.47738	-1.10306	1.16466	-1.04248	0.118033	0.31744	-0.190043	2.13049	
-1.58212	0.0181748	-0.622794	0.907267	-1.44681	1.0312	-1.73855	-0.111682	-0.706263	
-0.63337	0.499543	-0.0862637	0.358459	1.21082	1.20396	0.723597	0.976256	-0.00693241	
-1.10806	-0.16593	1.55873	1.61814	0.27574	-1.44109	1.60364	1.53858	0.00261835	
-1.30732	0.0870313	0.023702	-1.14607	-0.629336	2.73011	-0.158774	1.3104	-0.953735	
0.224921	0.095582	0.769354	0.530096	-1.56563	-0.978929	0.954276	-0.767433	0.0518131	
-0.163538	0.0227353	-0.341772	-0.899619	-1.29624	0.0670897	-0.804072	-0.441689	1.24525	
0.402678	1.11268	-0.499453	0.96713	-0.457796	-2.15059	1.3522	0.585571	0.603385	
0.457745	-1.67784	1.80449	
-0.163295	-0.0214266	-0.436699	
-1.12226	-0.838285	0.671198	
0.814392	1.49221	0.76351	
-0.292385	1.45362	0.0187339	
-1.16449	-0.580809	2.28862	
-0.226624	1.00264	1.84027	
0.3786	0.348334	-0.464067	
0.537421	1.8353	0.809085	
1.20452	
1.10792	
1.02412	
