0.622935	0.177746	0.628606	-0.371033	-0.17349	-0.170802	-0.191995	-0.299772	0.237092	
0.247156	0.00665784	-0.186465	0.41436	-0.229439	0.193537	-0.266748	-0.00449741	-0.594846	
-0.0619474	0.0057912	-0.373416	-0.315942	0.0311105	0.0393529	-0.328735	-0.289197	0.124694	
-0.0230365	0.197916	0.262518	0.410031	0.293839	0.0491053	-0.0986742	-0.137016	0.0469867	
0.117605	0.0817791	0.0900702	0.13589	-0.120511	0.0576685	-0.460079	0.295935	0.0197458	
0.557217	-0.192272	0.0587507	-0.0288857	-0.214679	0.532141	0.0201152	0.065531	0.354857	
-0.231796	0.0805401	-0.356634	0.0888714	-0.00540302	-0.542616	-0.352257	0.535457	0.415653	
0.146614	-0.466518	-0.278012	-0.173139	-0.336142	-0.268448	0.269626	-0.085352	0.198768	
0.543535	0.226529	-0.218022	-0.146671	-0.294768	0.161361	-0.237733	-0.336625	-0.240866	
0.022254	0.283518	-0.112376	-0.439708	0.0782071	0.230996	0.22558	0.0418452	-0.135784	
0.175517	0.0147792	-0.18054	0.0643877	-0.0743394	-0.316113	0.50425	-0.0175785	-0.0514687	
0.106342	0.129601	-0.305879	-0.192507	0.00952254	0.280381	0.349386	-0.130089	-0.138005	
0.0525707	0.230304	0.376621	
-0.147056	0.478264	0.133583	
0.167862	-0.758405	0.204733	
0.640179	0.0554627	0.215277	
0.191761	-0.819927	0.0508297	
0.105157	-0.0250449	0.498103	
0.577175	0.763689	-0.27855	
0.00786175	0.213426	0.324258	
-0.19483	0.592981	0.285761	
0.133739	
-0.0973617	
0.0927265	
