-0.336781	-0.304701	0.0634172	-0.371243	0.0800274	-0.0454149	0.113273	0.3194	-0.631671	
-0.393884	-0.388514	0.212607	-0.487994	0.300549	0.0921332	-1.46598	0.469202	0.291055	
-0.120218	2.40943	-0.0364281	-0.326203	-0.419975	-0.588927	0.923627	0.144646	-0.0378836	
-0.22836	-0.343663	-0.168254	-0.0553594	-0.421548	-0.195182	-0.225619	0.138979	-0.196664	
-0.0236099	0.181957	-0.0537555	-0.240186	0.448562	-1.23697	0.274413	0.180193	0.520851	
-0.267854	-0.339744	-0.572256	-0.353895	0.0321991	-0.0934296	0.511759	0.282019	0.368681	
0.0601855	-0.153966	-0.349943	0.447789	0.169092	-0.252754	0.108614	-0.843498	0.282069	
-0.0235786	0.198856	0.147576	-0.373145	-0.0110852	0.0793782	-0.918685	-0.106105	0.846454	
0.93674	0.308193	0.225789	-0.0660015	-0.0715656	0.353297	0.123517	0.152219	-0.168629	
-0.291286	0.305307	-0.0715344	0.00313422	-0.217309	-0.0243251	-0.128916	-0.516701	0.520726	
-0.0783915	-0.243835	0.000811407	-0.547333	-0.214744	-0.214384	1.18832	-0.318357	-0.159677	
0.400571	0.00659006	0.0432808	-0.152076	0.731569	0.24613	0.168154	0.500174	-0.110433	
0.105073	-0.390579	0.101889	
2.19768	0.150016	0.054414	
0.248315	0.225869	-0.14998	
-1.37554	0.924724	0.504271	
0.181056	0.253857	0.121509	
-1.01884	-0.25782	-0.424587	
0.16109	0.436719	0.0396454	
-0.0197494	-0.588351	0.41183	
-0.430856	-0.272895	-0.191764	
0.756604	
0.0622515	
0.0327109	
